<?xml version="1.0"?>
<opencv_storage>
<my_svm type_id="opencv-ml-svm">
  <svm_type>C_SVC</svm_type>
  <kernel><type>LINEAR</type></kernel>
  <C>1.</C>
  <term_criteria><epsilon>2.2204460492503131e-16</epsilon>
    <iterations>100</iterations></term_criteria>
  <var_all>3528</var_all>
  <var_count>3528</var_count>
  <class_count>2</class_count>
  <class_labels type_id="opencv-matrix">
    <rows>1</rows>
    <cols>2</cols>
    <dt>i</dt>
    <data>
      -1 1</data></class_labels>
  <sv_total>1</sv_total>
  <support_vectors>
    <_>
      -1.27447322e-02 8.17634352e-03 3.73356720e-03 -1.11403512e-02
      3.40714725e-03 -1.34695321e-02 -5.06741274e-03 1.09489579e-02
      1.63688939e-02 8.16292316e-03 1.93416178e-02 6.89176237e-03
      -2.01670844e-02 -1.71066485e-02 -2.19463147e-02 1.64747389e-03
      8.08443222e-03 8.49767122e-03 -9.36701149e-03 -2.67628357e-02
      -1.69161055e-02 -4.82012480e-02 -2.46044211e-02 -1.92719437e-02
      1.51843820e-02 -4.41420749e-02 -2.22551618e-02 -4.75840271e-02
      -4.93634120e-02 -4.38391529e-02 -9.30002332e-02 -1.09829325e-02
      -2.27963310e-02 3.00657330e-03 4.05772813e-02 -4.57959585e-02
      -2.10162979e-02 -7.10027888e-02 -2.72291508e-02 -1.76038165e-02
      2.76999455e-02 1.15246940e-02 -2.22798251e-03 1.05406977e-02
      -5.94713502e-02 1.32710347e-02 -7.06401318e-02 -6.45990670e-02
      -5.19492105e-02 6.78272396e-02 -2.64228471e-02 -6.58036694e-02
      4.82441783e-02 1.77169163e-02 3.81092099e-03 -5.06863836e-03
      1.34416753e-02 1.25434818e-02 3.34981978e-02 5.23864524e-03
      -3.24815768e-03 2.51048002e-02 7.02846795e-03 2.70051975e-02
      1.82681363e-02 1.17932996e-02 1.47860674e-02 3.07058357e-02
      8.47408641e-03 -1.78574715e-02 4.51382762e-03 9.55854822e-03
      2.21896525e-02 2.30212901e-02 -7.69506395e-03 -1.87772736e-02
      -1.90320611e-02 -1.41126644e-02 1.05396118e-02 1.80980582e-02
      1.37377232e-02 3.30411755e-02 2.53293738e-02 -8.23680125e-03
      -3.46060321e-02 -3.13469656e-02 -1.36749186e-02 2.60887966e-02
      4.20821905e-02 2.31805854e-02 1.22811273e-02 -3.44528258e-02
      -4.51891087e-02 -6.40198812e-02 -6.79449039e-03 -2.11940985e-02
      2.80665862e-03 4.89597209e-02 -1.46505255e-02 2.59009544e-02
      2.35085618e-02 2.02790536e-02 -5.37367947e-02 4.85851197e-04
      1.75724439e-02 8.19942802e-02 7.32470304e-02 -1.30576724e-02
      3.99057418e-02 -4.55706455e-02 -6.95044026e-02 -3.50039154e-02
      -1.30985084e-03 4.81179944e-04 -3.11231986e-02 6.92322701e-02
      1.38210244e-02 2.42258199e-02 2.35897191e-02 1.47002777e-02
      1.53708858e-02 3.60892825e-02 3.22830118e-02 4.65085916e-03
      4.84311059e-02 2.17896141e-02 1.52843073e-02 1.09596215e-02
      -6.59628352e-03 -1.01330103e-02 -3.30330990e-02 1.49788177e-02
      -6.29662443e-03 9.50024091e-03 -9.60505276e-04 3.68886553e-02
      1.26924803e-02 -3.90338339e-02 -3.12887914e-02 -2.92683505e-02
      -1.30307255e-02 -1.25767747e-02 2.51277536e-02 2.72552092e-02
      1.73463840e-02 1.14445547e-02 -1.59018841e-02 -4.13852520e-02
      -3.99569310e-02 -1.14636943e-02 2.22200397e-02 3.54987569e-02
      1.33726690e-02 9.08845291e-03 1.45832775e-02 -1.73669308e-04
      -1.57340188e-02 -1.58901699e-03 4.63634916e-03 1.53301908e-02
      1.00688348e-02 3.43171088e-03 -9.23490897e-03 -9.55229346e-03
      1.18001234e-02 -6.21612221e-02 -3.06623115e-04 5.20695224e-02
      8.12757760e-02 6.97853714e-02 -1.84581261e-02 -2.07311399e-02
      -1.48420744e-02 1.45779494e-02 -2.89244018e-02 -3.58884363e-03
      3.24420780e-02 3.64169404e-02 3.86174163e-03 -5.45499958e-02
      7.86114857e-03 3.65548469e-02 -6.15796074e-03 -4.47880439e-02
      -1.01806037e-02 2.71667391e-02 1.38943829e-02 3.30690704e-02
      -1.49477068e-02 3.74221466e-02 2.39590146e-02 -4.91740890e-02
      -8.31574500e-02 -4.03245203e-02 -1.07388990e-02 4.55828663e-03
      5.77375554e-02 -5.70765138e-03 3.87107171e-02 2.46604513e-02
      -3.37281376e-02 -3.51372734e-02 -1.69406869e-02 -1.73872486e-02
      -5.33150183e-03 1.83494240e-02 2.02540327e-02 3.01181041e-02
      2.51012240e-02 -1.64283011e-02 -7.32516944e-02 -4.91717495e-02
      6.09133579e-03 8.19318835e-03 9.64029599e-03 -1.32316230e-02
      1.37363300e-02 1.28269400e-02 -3.03131179e-04 -1.22617965e-03
      2.14906912e-02 9.30460636e-03 2.78859329e-03 2.57623545e-03
      7.64876651e-03 -8.96651205e-03 -9.98968910e-03 -2.27639079e-02
      -3.81399393e-02 3.53260152e-02 -4.25435463e-03 -1.16873868e-02
      -6.53283577e-03 -1.10180601e-02 -2.12238375e-02 -2.13115104e-02
      -3.17796953e-02 -1.27030853e-02 2.79047433e-02 6.43975614e-03
      -4.87608416e-03 -9.49075166e-03 -4.01294455e-02 -5.85324168e-02
      -1.61207914e-02 -7.01639727e-02 -7.29345828e-02 -8.87001865e-03
      -3.79771106e-02 -1.87945794e-02 -4.34227660e-02 -6.77047521e-02
      6.71678707e-02 1.77570041e-02 -3.50563861e-02 -2.11518370e-02
      -3.46210599e-02 2.71682050e-02 5.85290156e-02 8.88986290e-02
      4.26311493e-02 -2.91509740e-03 -5.70869334e-02 -1.14693619e-01
      -4.38096151e-02 -3.55760045e-02 4.25367355e-02 5.25000207e-02
      1.02831669e-01 3.38232182e-02 3.14351618e-02 2.90394034e-02
      2.87139928e-03 -3.39725763e-02 -3.54478434e-02 2.76281219e-02
      1.62623543e-02 2.79855691e-02 3.85048403e-03 6.86665357e-04
      1.64841097e-02 -5.20994402e-02 -7.80312568e-02 -3.86155806e-02
      2.22721454e-02 1.27194300e-02 3.25208269e-02 3.12801488e-02
      -5.88731142e-03 -6.28533354e-03 -1.14630498e-02 -3.13339084e-02
      5.93829639e-02 1.56600736e-02 1.02099264e-03 2.01215362e-03
      -2.48317304e-03 -1.21708559e-02 -1.43612307e-02 4.20658058e-03
      3.63068329e-03 1.66682117e-02 3.01560271e-03 -7.74904387e-03
      -2.07328014e-02 -1.16265072e-02 -2.88167838e-02 2.67879833e-02
      -3.29068676e-02 -4.77253720e-02 2.60951966e-02 -1.37790376e-02
      -4.82459925e-03 -2.82207448e-02 -6.13124296e-02 -3.21214087e-02
      -1.70845371e-02 1.23334052e-02 -1.99145023e-02 6.22293167e-03
      -8.61243010e-02 -7.76595771e-02 -3.41323838e-02 -5.70928417e-02
      6.07430143e-03 -2.84912996e-02 -7.24083558e-02 3.29508120e-03
      -8.18490982e-03 5.54340817e-02 5.89565635e-02 8.31510723e-02
      2.68112682e-02 -4.15020250e-02 -2.47448906e-02 -3.25848870e-02
      -1.33844083e-02 1.32542076e-02 -3.83288525e-02 7.17023760e-03
      2.20645703e-02 -6.44124718e-03 -3.48085305e-03 6.52589416e-03
      -3.93585004e-02 -4.04463597e-02 2.98937131e-02 3.12149394e-02
      1.84021406e-02 2.78805271e-02 4.11454141e-02 -1.20550701e-02
      -4.40319106e-02 -9.19218957e-02 -4.68943231e-02 3.95075418e-02
      2.33590491e-02 3.27522270e-02 1.85440797e-02 3.69871333e-02
      -1.25855661e-03 -9.02672112e-03 1.37642669e-02 1.38940653e-02
      3.95256691e-02 6.30559679e-03 -1.36448322e-02 -2.41420530e-02
      -6.69226982e-03 1.13541186e-02 -1.34453538e-03 1.36001771e-02
      1.55640962e-02 7.55958334e-02 -1.50012607e-02 -1.75159276e-02
      -2.29348838e-02 3.50414054e-03 -1.21988738e-02 7.05174403e-04
      2.09577382e-02 6.39217868e-02 8.07905942e-02 -6.48512319e-02
      -5.14231585e-02 -4.19597216e-02 -2.67697573e-02 -5.73804555e-03
      8.04953091e-03 2.66100839e-02 1.08955093e-02 -1.81700308e-02
      -1.58549279e-01 -1.23264693e-01 -1.05718367e-01 -6.03794418e-02
      -5.23060411e-02 -3.32832411e-02 -4.87279566e-03 5.98264076e-02
      7.99419656e-02 -1.20255295e-02 -2.58651376e-03 2.11147387e-02
      -2.11031549e-02 -6.18254617e-02 -6.60254508e-02 7.21383989e-02
      5.29533587e-02 9.85875446e-03 -1.12827927e-01 -5.18032722e-02
      -6.86129332e-02 -8.45420584e-02 -2.99283443e-03 -4.57162671e-02
      -6.61013946e-02 7.48878345e-03 8.28374699e-02 3.41855437e-02
      4.08273898e-02 1.54381501e-03 1.97225716e-02 -3.47382315e-02
      -4.29032072e-02 -2.15153806e-02 1.42217521e-02 5.97879365e-02
      2.32613925e-03 -8.27202667e-03 -2.96636857e-02 -2.55164709e-02
      1.85601208e-02 5.56243304e-03 1.46972714e-02 2.14330498e-02
      7.06767067e-02 1.02409795e-02 1.44461710e-02 9.97866504e-03
      2.17817388e-02 1.88393109e-02 6.15219818e-03 1.81177575e-02
      4.09742147e-02 4.38450724e-02 3.42503488e-02 4.43731211e-02
      4.24057879e-02 3.83832715e-02 -9.64789826e-04 1.17731374e-02
      8.49038642e-03 -1.98016372e-02 -2.24744473e-02 -1.47777259e-01
      -8.81026164e-02 -4.61344011e-02 -1.23293130e-02 3.94694209e-02
      -7.85210868e-04 -1.13353431e-02 5.14681526e-02 4.50397991e-02
      -6.76897019e-02 3.04033607e-02 2.99251676e-02 4.03771624e-02
      1.05530268e-03 -1.56809147e-02 6.08402416e-02 2.52913069e-02
      -2.81861220e-02 -1.03107467e-01 -3.85600626e-02 -3.82949263e-02
      -2.59134769e-02 9.13576111e-02 4.08279225e-02 5.12892455e-02
      3.96815464e-02 -8.60444382e-02 -1.57753810e-01 -4.42549735e-02
      -5.61666396e-03 4.52627540e-02 -3.72702186e-03 -2.32394738e-03
      6.12947112e-03 1.09421555e-03 1.06213344e-02 -3.17269154e-02
      -1.08482661e-02 -2.30457392e-02 -1.01141045e-02 5.52008040e-02
      3.44678909e-02 6.42875582e-03 2.69826408e-02 -1.30930990e-01
      -7.62858316e-02 -1.77412666e-02 -3.68431304e-03 4.48535159e-02
      1.40933525e-02 -3.79851554e-03 7.90675357e-03 3.68923903e-03
      3.02236676e-02 9.65155009e-03 -4.98398347e-03 2.19274331e-02
      1.52946273e-02 2.66861860e-02 3.90425161e-03 -7.61576695e-03
      9.58925299e-03 1.41404932e-02 4.63551469e-03 -2.58157402e-02
      4.54188464e-03 1.38184866e-02 -5.85235097e-02 8.12089071e-03
      1.04206502e-02 1.00735938e-02 5.09166643e-02 2.14414671e-03
      1.45019474e-03 2.41228426e-03 -2.01354623e-02 -2.42198594e-02
      -4.36186371e-03 5.86349368e-02 2.32974086e-02 1.65355187e-02
      9.97685175e-03 1.39787588e-02 -1.75377838e-02 -3.42854764e-03
      -8.45522657e-02 4.15356690e-03 -3.65444086e-02 1.38097899e-02
      5.93632385e-02 1.43933464e-02 -1.59528945e-02 1.26584072e-03
      -7.69946724e-02 -8.59673321e-02 -2.24918984e-02 1.37283932e-02
      -2.66735442e-02 -4.66773799e-03 1.74604412e-02 1.38514536e-03
      6.88910205e-03 -4.14495505e-02 5.42758219e-03 1.69696789e-02
      1.59512758e-02 3.58134229e-03 4.91358005e-02 2.21430250e-02
      5.44012524e-03 2.32463963e-02 4.57151979e-03 2.37658266e-02
      -7.44291290e-04 -7.16181612e-03 -3.18863839e-02 -2.11543012e-02
      -1.08731603e-02 -2.48188879e-02 1.28299110e-02 -2.88798586e-02
      2.36345306e-02 3.37935798e-03 -6.25669630e-03 5.49745560e-03
      -5.17991837e-03 1.51396235e-02 -8.05966649e-03 1.27021912e-02
      1.19654024e-02 2.90466808e-02 1.87385771e-02 -1.01636276e-02
      3.41542088e-03 2.66950373e-02 1.60780307e-02 5.75254962e-04
      1.70066226e-02 1.90556981e-02 1.66651178e-02 3.69123593e-02
      4.07844558e-02 1.37838451e-02 -3.25358547e-02 3.36301774e-02
      2.89308894e-02 9.87321232e-03 7.55580515e-03 5.52487671e-02
      -2.84780599e-02 9.84266168e-04 -9.18149203e-03 9.41828417e-04
      3.85266310e-03 -8.14637262e-03 -8.78202263e-03 7.35472590e-02
      -1.87364072e-02 3.66914719e-02 1.57427061e-02 -5.22266068e-02
      -5.59188910e-02 1.42128374e-02 1.13209095e-02 1.93661079e-02
      -7.57542963e-04 2.10093539e-02 -1.16371382e-02 -1.62728671e-02
      -3.46196964e-02 -1.26124034e-02 1.58498436e-02 2.45586988e-02
      7.03174016e-03 1.48963481e-02 1.20991217e-02 1.22646084e-02
      -5.47572598e-03 -4.87672910e-02 -4.15340103e-02 -1.74084064e-02
      -7.70273432e-03 1.51896384e-02 -1.44369183e-02 -5.63267665e-03
      -1.15927374e-02 -8.82624462e-02 -8.81397426e-02 5.55210165e-04
      -1.05611244e-02 2.55172830e-02 2.65254229e-02 1.26118166e-02
      2.19613519e-02 2.45472193e-02 -1.20502505e-02 -5.16413944e-03
      3.10003664e-02 1.01888701e-02 6.63380465e-03 1.38036804e-02
      1.19108493e-02 2.56899837e-02 2.22238824e-02 2.88153370e-03
      -2.48490740e-02 -1.17207672e-02 2.49980334e-02 1.96209680e-02
      1.82083286e-02 1.09589444e-02 3.73698696e-02 -4.10547666e-02
      -2.67181005e-02 3.00434828e-02 6.69012889e-02 2.90063024e-02
      8.75850953e-03 5.58783580e-03 5.39248437e-02 9.01818834e-03
      1.07559022e-02 -1.08022708e-02 -1.39449714e-02 5.23727052e-02
      5.94356917e-02 2.34278645e-02 3.50275040e-02 -3.54946889e-02
      -1.51338829e-02 -7.16077015e-02 -7.17993453e-02 -1.76749732e-02
      2.01607961e-02 6.79672733e-02 5.43993339e-02 3.00357286e-02
      -1.14242639e-02 -1.88342500e-02 -7.08761960e-02 -8.90487209e-02
      -9.20543149e-02 2.06032302e-02 7.07846433e-02 5.17446250e-02
      4.57161851e-02 -2.94283032e-02 -1.39123946e-03 -2.40845848e-02
      -1.11842789e-01 -5.83758950e-02 5.19654080e-02 1.17172785e-02
      3.43862623e-02 3.14491279e-02 9.30318888e-03 -1.33590831e-03
      5.88422175e-03 -8.25446248e-02 -7.44304955e-02 5.52098965e-03
      3.47365229e-03 1.84727311e-02 2.53705923e-02 8.38759448e-03
      2.59097312e-02 1.89908482e-02 4.20176005e-03 -2.22389605e-02
      -3.10826022e-02 2.43728478e-02 2.34692693e-02 2.40536071e-02
      2.40768939e-02 1.16655324e-02 -1.39845570e-03 -3.24337967e-02
      -3.33342180e-02 -4.10095323e-03 3.26876268e-02 2.11965963e-02
      2.44330410e-02 3.57131362e-02 1.90519467e-02 5.02543300e-02
      -1.06013287e-03 -3.78572159e-02 -4.54007741e-03 3.74852195e-02
      1.70837361e-02 4.50005345e-02 -4.55828756e-02 3.13213617e-02
      6.87310323e-02 7.95803685e-03 -1.04099400e-01 -1.04707159e-01
      -4.01338935e-03 1.02042696e-02 4.30901535e-02 2.86633652e-02
      1.48659553e-02 -1.84653942e-02 -6.12861812e-02 -1.13923028e-01
      -3.39999944e-02 1.92415621e-02 3.99888009e-02 4.10296842e-02
      -1.55465705e-02 7.04072192e-02 1.02680199e-01 4.07913253e-02
      -7.84877017e-02 -6.37387112e-02 -6.62976727e-02 -5.41980155e-02
      -8.38921033e-03 -2.65195547e-03 5.55529539e-03 1.67205054e-02
      -1.26831029e-02 -4.76048328e-02 -2.75983959e-02 -8.13581166e-04
      2.19904799e-02 1.44062582e-02 1.02088246e-02 4.71242256e-02
      2.23835111e-02 4.09265496e-02 -6.99841557e-03 3.66006866e-02
      3.08363978e-02 -1.28240772e-02 -8.16990063e-03 3.61733474e-02
      1.16953272e-02 -6.06794019e-05 -2.93093603e-02 -2.86748912e-02
      1.91141032e-02 1.81307755e-02 3.21907457e-03 5.38981892e-03
      3.79825644e-02 -8.90603056e-04 -1.08768446e-02 -4.07410040e-02
      -7.05986144e-03 1.24309175e-02 3.77389509e-03 -2.33349434e-04
      -1.18903369e-02 9.18214861e-03 2.37129498e-02 5.25880232e-02
      1.64919216e-02 -9.54382867e-02 -6.67006373e-02 -1.54945096e-02
      -1.71305910e-02 1.60676967e-02 6.92342371e-02 -1.96029674e-02
      -3.02729066e-02 -1.01721473e-01 -1.03946500e-01 1.49022117e-02
      -2.50871293e-03 -3.01467869e-02 -1.91694144e-02 2.44235955e-02
      7.37278089e-02 1.06349528e-01 7.44984895e-02 -2.30177771e-02
      -5.08586578e-02 -1.87709853e-02 -1.02338858e-01 -3.12861279e-02
      3.57236378e-02 3.00394148e-02 3.16779017e-02 3.18302996e-02
      2.70894039e-02 4.00140360e-02 -5.34179136e-02 -1.24926977e-01
      -4.55365703e-02 -6.04727119e-03 4.12236899e-02 2.33268570e-02
      4.53365408e-02 1.67106874e-02 1.01282887e-01 5.02338707e-02
      -1.16871800e-02 -9.31869354e-03 3.85724679e-02 1.92727093e-02
      2.10029185e-02 3.87554243e-02 5.25903329e-02 3.78727168e-02
      1.18938591e-02 -3.32828984e-02 -3.17954458e-02 1.09837716e-02
      -6.08820422e-03 -1.99438557e-02 -2.36792527e-02 1.96192116e-02
      4.31479849e-02 1.43643282e-02 1.31026665e-02 -1.08809564e-02
      1.08078113e-02 -2.45896131e-02 -2.91345194e-02 3.09669366e-03
      1.10012433e-02 1.79100204e-02 -2.87430105e-03 -1.00773880e-02
      -2.19483469e-02 -1.91002693e-02 -1.25703942e-02 -7.28658810e-02
      -7.07824677e-02 -3.17427553e-02 8.33427832e-02 6.17035516e-02
      -6.11236203e-04 -3.87599021e-02 -7.67304096e-03 -8.11029077e-02
      -1.17431492e-01 -5.45091406e-02 1.42190075e-02 7.74456263e-02
      -1.09598590e-02 -8.50473121e-02 -1.24326400e-01 -1.19884692e-01
      -8.27120803e-03 -1.81669854e-02 5.49299382e-02 8.97284821e-02
      6.73854873e-02 3.24692354e-02 -7.85380527e-02 -5.15675172e-02
      -3.86146568e-02 -4.82243076e-02 -3.16649564e-02 -3.02030183e-02
      1.27574448e-02 3.03545482e-02 1.86079275e-02 -7.44570643e-02
      -1.11426279e-01 -1.17373891e-01 2.01642863e-03 3.69774806e-03
      3.21821719e-02 5.43185472e-02 4.17640284e-02 2.50533596e-02
      -6.97393762e-03 -3.21888216e-02 -5.74997021e-03 9.27938055e-03
      6.06334163e-03 9.03500337e-03 6.46421453e-03 -3.66457226e-03
      2.13234741e-02 3.00789485e-03 -2.84109302e-02 -1.07358145e-02
      1.61611452e-03 -2.84757302e-03 1.71332695e-02 1.05057517e-02
      -6.95816381e-03 1.35933675e-04 -1.02175004e-03 -7.68467784e-03
      2.45503429e-03 3.78212258e-02 1.95044186e-02 1.22561743e-02
      2.47708987e-02 -5.55770621e-02 -4.43002582e-02 -1.50809363e-02
      -1.38687005e-03 3.31643298e-02 -1.35691790e-02 -1.68926269e-02
      -1.86019633e-02 4.91326526e-02 1.70581322e-02 -4.36528549e-02
      -4.13537435e-02 -8.29403996e-02 -6.77381828e-02 8.70106220e-02
      6.19021878e-02 -5.53832436e-03 3.44396494e-02 -6.35604784e-02
      -7.96357617e-02 7.02269422e-03 -8.03176314e-03 7.18989670e-02
      -4.04887013e-02 -2.93742470e-03 -1.83135048e-02 1.40438434e-02
      -6.26666751e-03 2.22719312e-02 -2.00514980e-02 -6.78784624e-02
      -9.89527926e-02 6.66872188e-02 -8.43148027e-03 -4.06155214e-02
      -1.11155184e-02 -6.06699139e-02 9.75191360e-04 3.62587236e-02
      3.84088419e-02 4.05423343e-02 1.11160763e-02 1.29134087e-02
      1.32084610e-02 6.23444561e-03 -6.28892779e-02 2.94699389e-02
      2.00991668e-02 -7.75146484e-03 -5.84600074e-03 2.52218638e-02
      1.50695890e-02 4.03641984e-02 2.42221039e-02 -1.07365817e-01
      6.87980093e-03 1.26077374e-02 1.72636975e-02 1.40932081e-02
      -4.34734561e-02 -2.14977469e-03 2.49491143e-03 3.53611237e-03
      1.94823816e-02 3.75026185e-03 9.49969108e-04 1.24695664e-02
      -3.34998257e-02 -3.80583480e-02 -1.24622346e-03 -1.51087372e-02
      -2.94952802e-02 -8.27764533e-03 8.67946248e-04 -9.80134937e-04
      1.07663888e-02 -3.89109217e-02 -6.26290962e-02 2.79480517e-02
      4.72569242e-02 -8.56198091e-03 1.25977561e-01 2.42622718e-02
      -2.52748746e-02 -2.59735510e-02 -5.44757992e-02 -7.88858160e-03
      9.46817081e-03 9.07873642e-03 -2.54320707e-02 -2.29886621e-02
      -2.14398894e-02 -1.51166972e-02 3.85173485e-02 -4.87744324e-02
      -5.67604974e-02 -1.62561014e-02 -1.10761309e-02 7.98568130e-03
      1.01036474e-01 -3.06104794e-02 -4.47811559e-02 -9.21871862e-04
      -3.79014835e-02 -3.27565521e-02 -4.00399938e-02 -1.22933993e-02
      -5.88129573e-02 -8.15763045e-03 -1.57992691e-02 -3.64289619e-02
      -1.16382595e-02 -1.41969603e-02 -3.08828596e-02 1.09982258e-02
      5.84551273e-03 -1.58945620e-02 1.31409559e-02 3.19855846e-03
      -4.82570991e-04 5.86861325e-03 -3.03528924e-03 -2.95738056e-02
      1.70207173e-02 6.64546248e-03 -4.07104269e-02 -2.37889718e-02
      2.31557339e-02 -1.35135520e-02 -3.81591124e-03 2.76452815e-03
      -7.05232564e-03 2.03890353e-02 -9.45546082e-04 -1.63671076e-02
      -1.85551830e-02 -1.41100422e-03 4.17598663e-03 1.57046858e-02
      -8.58720206e-03 -3.89843737e-03 1.05524389e-03 -3.65752168e-02
      -1.82547290e-02 4.08039941e-03 -6.12710882e-03 2.16994286e-02
      2.07975730e-02 6.42639305e-03 2.66871359e-02 2.14662123e-02
      4.58523668e-02 -2.70049982e-02 -2.86528114e-02 -3.59460828e-03
      3.30588482e-02 6.03415258e-02 -9.96350497e-03 1.34733254e-02
      -3.26848030e-02 -1.06026269e-01 -8.06233212e-02 1.63338948e-02
      8.08981284e-02 3.80686484e-02 3.15025896e-02 2.40754373e-02
      2.37883963e-02 -1.61110181e-02 9.05040745e-03 -5.42028211e-02
      -3.58943567e-02 6.11098111e-03 2.69335844e-02 3.43570448e-02
      4.53564152e-02 8.67394381e-04 -6.51592687e-02 -1.22703247e-01
      -5.51129095e-02 -1.15813827e-02 5.17766327e-02 8.20346028e-02
      2.19352767e-02 2.22741105e-02 -1.34466018e-03 2.37339791e-02
      2.03043576e-02 4.65390133e-03 -3.30565460e-02 1.25020230e-02
      5.48475841e-03 1.14457970e-02 2.19542179e-02 1.14464294e-02
      -7.50561303e-04 -4.68536373e-03 3.07484027e-02 -3.83884981e-02
      -2.77932100e-02 3.39078866e-02 1.98592301e-02 1.17401294e-02
      4.07621451e-03 -1.13452021e-02 -6.33199960e-02 -1.55067882e-02
      4.23198640e-02 1.39542632e-02 2.99387909e-02 2.34665591e-02
      1.10162357e-02 9.66524333e-03 1.15497143e-03 -5.99489398e-02
      -4.26376909e-02 1.71506591e-02 2.09989417e-02 2.61832979e-02
      2.47129593e-02 1.35110123e-02 2.01061256e-02 -4.14513908e-02
      -1.42202795e-01 -6.12743571e-02 4.27206755e-02 9.35534909e-02
      3.93052623e-02 1.39887361e-02 8.11913144e-03 9.03404038e-03
      -1.20349908e-02 -7.18404800e-02 -8.78701434e-02 -4.30288259e-04
      1.99143868e-02 1.32567901e-02 -7.92946294e-03 7.42763141e-03
      -3.03648505e-02 -6.79916888e-02 -1.12124510e-01 -3.21820714e-02
      -4.90183849e-03 6.40456080e-02 9.35336277e-02 1.53291402e-02
      -3.64027508e-02 -4.81595583e-02 -6.20481931e-02 -8.68689790e-02
      -2.95250602e-02 2.33571455e-02 1.86965857e-02 6.62424713e-02
      1.97434369e-02 -3.63159850e-02 -4.39616106e-03 -1.76153220e-02
      -2.17905138e-02 1.11714648e-02 7.49152945e-03 -9.00875684e-03
      3.30269411e-02 2.39573754e-02 -8.84917192e-03 -2.15712283e-02
      -3.57390307e-02 -4.13508564e-02 -3.64504121e-02 2.04215255e-02
      2.17398945e-02 1.89846307e-02 -2.07573711e-03 -3.51132713e-02
      1.81393884e-02 1.55538255e-02 -1.31101878e-02 -4.25073169e-02
      -3.31176743e-02 7.59912143e-03 1.28557794e-02 1.49471909e-02
      1.18028009e-02 2.99960896e-02 2.49725226e-02 5.45632802e-02
      4.32071649e-03 3.47460322e-02 3.49639845e-03 -2.61807889e-02
      -1.84970852e-02 1.18420748e-02 2.72051897e-03 1.41065801e-02
      -2.77688820e-02 -8.17778334e-02 -4.67834957e-02 -1.25188020e-03
      5.02236281e-03 -2.70777964e-03 4.79605421e-03 3.77584733e-02
      4.29547094e-02 5.58067374e-02 1.92474411e-03 -7.52106635e-03
      1.05832815e-01 -3.24454089e-03 -3.12598702e-03 2.96376944e-02
      -2.11946443e-02 -3.41890715e-02 -6.22470267e-02 -7.93373436e-02
      -5.32354712e-02 -3.91152315e-02 4.01207097e-02 2.80693602e-02
      -1.76381804e-02 3.48268636e-03 -3.38581088e-03 -3.57569344e-02
      -3.41278017e-02 -5.35778329e-02 4.86671366e-02 2.45394390e-02
      4.81421016e-02 3.31650600e-02 -2.22572386e-02 -1.65935848e-02
      -1.91932861e-02 -3.84716578e-02 -5.65136001e-02 8.68746825e-03
      1.99180492e-03 -9.84538253e-03 -2.23910157e-02 -1.41884061e-02
      2.43248232e-02 2.29613837e-02 -6.71763159e-03 -8.76010954e-03
      -4.61842958e-03 1.36010852e-02 5.44112315e-03 -4.56866255e-04
      3.23625728e-02 2.63187625e-02 4.45469730e-02 -4.65497957e-04
      1.45045193e-02 -1.23359691e-02 -4.77297604e-02 -3.23317163e-02
      1.25601394e-02 -9.84064117e-03 6.92459894e-03 1.95464976e-02
      1.77374016e-02 -1.18130064e-02 -4.30124812e-02 -9.45787579e-02
      -7.28035271e-02 -3.09925228e-02 1.52217206e-02 3.39134671e-02
      3.44857164e-02 -1.93670187e-02 -1.90178342e-02 6.87465966e-02
      -3.26331519e-02 -1.81263145e-02 3.06936856e-02 5.15231378e-02
      6.17674440e-02 7.45958909e-02 3.14200148e-02 2.62608789e-02
      5.51500404e-03 -4.28516082e-02 -5.78221269e-02 2.56511266e-03
      -3.30724963e-03 -1.16401557e-02 -4.54532020e-02 -5.16387336e-02
      -4.48679179e-02 -1.02220941e-03 -9.83640179e-03 2.73408536e-02
      2.43682656e-02 5.71971685e-02 6.16020337e-02 3.41656879e-02
      1.14951050e-02 -5.37283253e-03 4.47749868e-02 3.88364792e-02
      4.17711921e-02 6.14362247e-02 -3.37646226e-03 2.30033975e-02
      1.91574376e-02 -6.53130561e-03 -9.97915678e-03 -2.00777538e-02
      1.60471033e-02 1.38335945e-02 3.30114039e-03 3.14884558e-02
      1.18308263e-02 2.84743998e-02 1.24858115e-02 -5.45504130e-02
      -1.67448004e-03 3.01247332e-02 2.67379563e-02 2.56446898e-02
      -3.72078572e-03 1.49054220e-03 2.82999687e-02 3.76440100e-02
      2.77446397e-02 -1.20904651e-02 -5.01166321e-02 -5.59067652e-02
      -2.06388980e-02 -1.22851618e-02 -4.64127213e-03 1.03291348e-02
      -1.11002596e-02 -2.44680140e-02 1.04661100e-02 -1.04529653e-02
      -4.87596020e-02 -3.86175364e-02 3.57669517e-02 4.94294912e-02
      8.25152099e-02 6.83724880e-02 3.68982041e-03 5.68758175e-02
      5.60767297e-03 -5.54403141e-02 -2.24757921e-02 -9.55696870e-03
      -9.05971881e-03 -9.99111496e-03 -6.47201836e-02 -8.27488154e-02
      -6.40005693e-02 -1.16543891e-02 -4.99943979e-02 -5.70145957e-02
      4.35076989e-02 5.24517782e-02 7.52321482e-02 6.87015355e-02
      6.20873924e-03 1.08116932e-01 9.05127972e-02 4.30508591e-02
      2.33476087e-02 3.09343915e-02 3.54326665e-02 2.32110210e-02
      -4.94293161e-02 -2.94973757e-02 1.77737474e-02 8.96018669e-02
      5.73675111e-02 2.17477567e-02 2.82602627e-02 2.00049467e-02
      3.60197648e-02 3.07935830e-02 -1.17094293e-02 2.40601879e-02
      3.11754346e-02 2.85377242e-02 2.52943151e-02 6.75179064e-03
      1.16903894e-02 1.91017576e-02 2.32481342e-02 -4.44692634e-02
      3.53070013e-02 3.13145444e-02 2.45571267e-02 2.01548804e-02
      -5.06364275e-03 -3.16814706e-03 7.45520042e-03 -6.85027428e-03
      -4.82241511e-02 1.42584220e-02 4.00984241e-03 -1.08284773e-02
      -1.77909359e-02 1.36882327e-02 -6.89689536e-03 1.24882779e-03
      -7.80098140e-04 -1.14713944e-01 5.40279504e-03 8.21869262e-03
      1.33372946e-02 6.88620051e-03 -3.39876069e-03 1.71210486e-02
      3.28786671e-02 -2.21439600e-02 -6.09980561e-02 -5.64160645e-02
      1.66697670e-02 -2.55645663e-02 -3.53594981e-02 -3.66451181e-02
      3.36324163e-02 9.13627967e-02 -1.57335903e-02 -5.88621795e-02
      -7.22396048e-03 1.29779065e-02 -1.52331032e-02 -2.38104444e-02
      3.00141368e-02 4.87897508e-02 5.60456403e-02 3.92457023e-02
      -2.86275800e-02 1.89020857e-02 8.90122131e-02 4.95624207e-02
      2.97017284e-02 8.76203272e-03 6.03750311e-02 8.87441337e-02
      1.38351917e-02 -5.22509729e-03 -1.86537039e-02 8.15674439e-02
      3.47090848e-02 1.48719363e-02 6.64138980e-03 1.86038169e-03
      1.83646679e-02 3.97553556e-02 -6.36391155e-03 4.43334281e-02
      4.15330827e-02 2.39365883e-02 2.53646187e-02 3.08490964e-03
      -7.92353414e-03 6.29966240e-03 -3.08543742e-02 -4.77169678e-02
      6.87402999e-03 3.77048813e-02 2.95230262e-02 2.53530461e-02
      1.51714139e-05 5.67862950e-03 -1.44981139e-03 -8.43039434e-03
      2.24230494e-02 -4.99835098e-03 -9.50799976e-03 5.57990326e-03
      9.77012608e-03 -1.47002982e-02 1.04961852e-02 1.74427871e-02
      -1.75295528e-02 -1.52417552e-02 1.54162748e-02 -1.11005725e-02
      -3.94009007e-03 1.04035661e-02 -3.11664790e-02 7.15395361e-02
      2.75245458e-02 -2.64122281e-02 -2.43290104e-02 -1.16682919e-02
      5.62193841e-02 3.30278464e-02 -1.30050313e-02 -4.35692482e-02
      -1.41662927e-02 -2.84539163e-02 -2.22339891e-02 -6.39533475e-02
      2.27615274e-02 1.33818798e-02 -3.67901591e-03 -4.98326030e-03
      -5.18695898e-02 3.21454592e-02 4.52607721e-02 1.83249302e-02
      5.29749505e-03 5.73784253e-03 6.54226691e-02 -6.44160528e-03
      -5.35097830e-02 -4.90929894e-02 -2.45203599e-02 -3.38741615e-02
      -4.50858027e-02 -4.24165614e-02 -3.76782380e-02 5.09047806e-02
      5.62815322e-03 1.90371834e-02 -3.54113393e-02 -1.57831255e-02
      1.41017401e-04 2.27801949e-02 -1.73695683e-02 7.62805762e-03
      2.50964370e-02 6.98977103e-03 -3.10004335e-02 -4.58580032e-02
      -8.79388209e-03 3.70794907e-03 1.96346305e-02 -5.82859851e-03
      9.43132862e-03 2.35494040e-02 1.84243936e-02 -3.47107723e-02
      -4.73329565e-04 1.27961254e-02 1.81382839e-02 5.87377418e-03
      -1.78055391e-02 1.38794463e-02 6.36733836e-03 1.18716424e-02
      1.49412388e-02 6.92102872e-03 1.33137824e-03 -1.66485570e-02
      1.61636993e-03 -2.20339298e-02 -5.19654073e-04 2.75159553e-02
      1.68654397e-02 2.53613805e-03 -8.17263778e-03 2.29949597e-02
      3.44518349e-02 2.53756735e-02 -7.42653459e-02 5.49928192e-03
      7.82098155e-03 1.69252194e-02 1.86574496e-02 8.59193318e-03
      2.21176855e-02 6.25469238e-02 2.07162928e-02 -4.29827645e-02
      -4.77967635e-02 2.73744017e-02 -2.91092903e-03 -6.75795227e-03
      9.91648342e-03 1.86920054e-02 8.86270136e-04 -1.55529482e-02
      -7.85587355e-02 -4.12932113e-02 2.20295209e-02 1.91367213e-02
      7.43967965e-02 6.54261038e-02 3.53534780e-02 2.64798608e-02
      6.55289693e-03 -6.09045289e-02 -4.53249142e-02 -4.31632511e-02
      1.41025176e-02 6.75517321e-02 -2.97870263e-02 2.00363225e-03
      2.03759558e-02 2.80258264e-02 -1.61371936e-04 -1.27479099e-02
      1.76452473e-02 2.06836574e-02 -2.07072664e-02 -2.02497169e-02
      1.71684884e-02 1.66967008e-02 5.31230159e-02 -2.37681605e-02
      -5.61502837e-02 -3.93128693e-02 1.11029902e-03 -1.14965104e-02
      8.34417436e-03 -4.00649523e-03 -1.55413402e-02 4.70301416e-03
      1.09939063e-02 1.31985014e-02 4.47672717e-02 1.95096899e-02
      1.09590893e-03 -4.77050338e-03 -2.03334391e-02 -2.57778410e-02
      -1.80155188e-02 8.34524166e-03 2.71902010e-02 2.46339291e-02
      1.16603700e-02 -4.92798723e-03 -1.52371172e-02 -1.90178640e-02
      -5.42842411e-03 1.80040821e-02 -1.78971179e-02 6.00496447e-03
      4.75129783e-02 2.62045506e-02 -2.22392213e-02 -7.02400729e-02
      -3.35867256e-02 -4.26606648e-03 -6.89103454e-02 1.70212947e-02
      2.97812335e-02 4.11251709e-02 5.67657547e-03 -9.50162560e-02
      3.92784923e-02 3.41455713e-02 6.31760014e-03 1.29334384e-03
      -3.54765989e-02 -1.55789452e-02 -2.48420406e-02 1.43909119e-02
      5.66337071e-02 -6.62188381e-02 -7.88109228e-02 -4.30814587e-02
      -3.11383456e-02 -3.68177425e-03 -2.12483332e-02 -1.08716357e-02
      1.22263748e-02 -3.46054812e-03 -1.33390108e-03 2.92410962e-02
      2.12553348e-02 4.90436517e-02 -3.50523554e-03 -4.34759632e-02
      -4.93362844e-02 -1.88256074e-02 3.43811023e-03 2.80363541e-02
      2.00111959e-02 1.62860025e-02 2.31306572e-02 -9.98172443e-03
      9.21252277e-03 -6.14725538e-02 -3.46973576e-02 3.38164158e-02
      -1.71492645e-03 -3.86603898e-03 -4.68904478e-03 -1.92328393e-02
      -4.37842235e-02 1.36586754e-02 1.09955855e-02 8.62324052e-03
      3.61039350e-03 1.36923301e-03 1.43177779e-02 9.86967329e-03
      -1.41290389e-02 1.49278936e-03 1.88944619e-02 1.58050917e-02
      1.41597129e-02 1.10925073e-02 -5.61920032e-02 -1.99208260e-02
      -2.24438077e-03 -4.44507338e-02 -6.35469034e-02 1.53483627e-02
      9.38015431e-03 -2.30341572e-02 -6.03611097e-02 8.13268591e-03
      4.89423536e-02 7.55662322e-02 2.61088535e-02 -1.59962177e-02
      -9.77475755e-03 8.28931760e-03 -2.83424160e-03 5.19061182e-03
      -6.67097047e-02 -1.04837880e-01 -2.91386973e-02 9.50097200e-03
      -6.67254105e-02 4.82712267e-03 1.30578061e-03 1.10680833e-02
      -1.11424662e-02 2.44331416e-02 2.83003896e-02 4.28032689e-02
      7.49388933e-02 -5.57512902e-02 7.51811787e-02 6.10101745e-02
      3.18528414e-02 3.20371464e-02 3.02091353e-02 2.97956495e-03
      1.21059828e-02 6.15046546e-03 -3.05614360e-02 9.58860759e-03
      -2.86856685e-02 -7.70242233e-03 3.16582434e-02 1.35243721e-02
      8.55526142e-03 2.09205672e-02 4.09808680e-02 -1.94678213e-02
      3.60611384e-03 3.59041356e-02 3.15596610e-02 1.62802227e-02
      9.77984723e-03 6.34588441e-03 -1.35075115e-03 -2.25915909e-02
      -2.28816029e-02 -1.17968405e-02 -1.42759969e-03 8.25143792e-03
      1.26358988e-02 2.91100293e-02 7.30646634e-03 1.27244033e-02
      -3.70114413e-03 -5.21031208e-02 -6.68964162e-03 1.22950450e-02
      5.51849138e-03 1.13550685e-02 5.91129949e-03 3.32995467e-02
      6.98180273e-02 -6.68769330e-03 -5.70138693e-02 -7.07144812e-02
      1.54085886e-02 -2.73308903e-03 2.24936046e-02 5.36030307e-02
      2.31642574e-02 4.62066457e-02 2.27257758e-02 -1.22360224e-02
      1.31223891e-02 8.82290751e-02 7.44765252e-02 3.98161598e-02
      1.22945551e-02 5.69535047e-02 4.04185355e-02 3.12259253e-02
      -7.16798902e-02 -2.07932647e-02 4.99959383e-03 2.79856082e-02
      3.36334445e-02 4.68459055e-02 -7.21397635e-04 8.80008098e-03
      2.68192030e-02 -2.96909139e-02 -2.38472018e-02 2.87057552e-02
      5.56438677e-02 4.68817353e-02 -3.07795987e-03 -8.21758527e-03
      -1.93877127e-02 2.71851644e-02 -3.18140015e-02 -3.16209272e-02
      2.45227870e-02 2.77920719e-02 8.18945002e-03 -7.41797732e-03
      -2.04365086e-02 -4.14649807e-02 6.97885826e-03 -3.91692296e-02
      5.80644002e-03 1.64110661e-02 2.82610506e-02 1.02717830e-02
      7.88363221e-04 -6.61686156e-03 6.75887708e-03 -1.13470703e-02
      -2.60804798e-02 6.51306147e-03 1.50038041e-02 1.50301848e-02
      -5.35403891e-03 -9.40293074e-03 -3.49169830e-04 3.00494814e-03
      -1.75816554e-03 -7.77033642e-02 8.39016959e-03 1.84318479e-02
      1.12526165e-02 -3.12153716e-03 6.56385422e-02 2.04493869e-02
      4.18209694e-02 5.49035333e-02 -3.89795192e-02 3.85224521e-02
      8.11107308e-02 7.46341944e-02 6.27091974e-02 3.75392847e-02
      9.22586676e-03 6.50972202e-02 4.47861180e-02 7.49911938e-04
      2.46795770e-02 8.38712528e-02 6.62309751e-02 6.08405545e-02
      2.34448649e-02 -9.92050581e-03 1.35932127e-02 1.11120276e-01
      -2.64777001e-02 4.45838980e-02 5.22741824e-02 2.01208703e-02
      4.19136174e-02 -3.60904494e-03 9.44691058e-03 3.70235108e-02
      8.49652216e-02 -5.08902073e-02 -3.46680954e-02 5.29704504e-02
      4.27433383e-03 -9.34408512e-03 -4.19510808e-03 -1.44284889e-02
      -1.22777261e-02 1.07003897e-02 -1.45852342e-02 2.20805947e-02
      2.36058962e-02 2.48702299e-02 1.35180177e-02 -9.31362342e-03
      -1.37132872e-02 2.86813919e-03 1.22924820e-02 -8.24328810e-02
      2.38005184e-02 2.97827367e-02 2.23216098e-02 -1.93414488e-03
      1.03811808e-02 3.99638154e-03 1.12067126e-02 1.62936710e-02
      -2.70875804e-02 2.51235999e-02 2.39006579e-02 1.18808122e-02
      1.31848808e-02 5.15522389e-03 -1.53155602e-03 9.24995262e-03
      -1.74825005e-02 -6.22188896e-02 -1.13524799e-03 2.79850233e-02
      1.85438879e-02 1.69403777e-02 2.46119276e-02 7.56140286e-03
      7.28577971e-02 1.00173213e-01 -1.14564681e-02 3.49842608e-02
      8.50543454e-02 6.25745803e-02 5.52190691e-02 -5.16221188e-02
      -6.85825525e-03 3.37483324e-02 -1.69490725e-02 -5.11877500e-02
      -4.88517769e-02 4.41729687e-02 5.09722121e-02 6.28883950e-03
      -6.36715777e-05 4.11290526e-02 6.43752292e-02 1.10500976e-01
      -5.59776388e-02 -1.64942089e-02 6.63443059e-02 3.61650027e-02
      2.37505860e-03 -3.80936563e-02 1.02518024e-02 5.23030274e-02
      1.01386778e-01 -6.30728975e-02 -7.43530542e-02 4.19813097e-02
      3.32832821e-02 -1.27312206e-02 2.04284247e-02 1.23350210e-02
      2.26722453e-02 3.57460715e-02 -1.90146752e-02 3.55543904e-02
      2.76378319e-02 2.50781421e-02 7.76403910e-03 1.92217324e-02
      2.12736689e-02 2.14468110e-02 3.75454091e-02 -4.69506048e-02
      -2.15182044e-02 2.34491620e-02 1.77491028e-02 1.29810059e-02
      -5.91334142e-02 -1.79678649e-02 -2.07637972e-03 1.35205947e-02
      -1.26896449e-03 3.28464527e-03 1.87334642e-02 2.14309851e-03
      -4.30056863e-02 -5.54028153e-02 -1.87753700e-02 -1.36805307e-02
      1.32063101e-03 -3.59815769e-02 -9.48968437e-03 1.88540295e-02
      1.74759980e-02 -1.69459488e-02 -4.22461778e-02 -2.49608792e-02
      -1.86769739e-02 1.77562013e-02 -2.06691250e-02 2.77353898e-02
      7.82686174e-02 3.52253467e-02 -3.21545042e-02 -8.54834095e-02
      1.18526202e-02 -3.76794301e-02 -2.73038670e-02 -4.60044369e-02
      -1.01686711e-03 3.74157541e-02 -3.70278955e-02 -1.07476503e-01
      -3.54135446e-02 -1.49606997e-02 3.77813615e-02 4.52934578e-03
      -1.67989114e-04 3.50939557e-02 6.40983507e-02 4.94619198e-02
      -1.96055919e-02 4.16001538e-03 -9.08099953e-03 1.29014775e-02
      3.00174598e-02 2.02177488e-03 -1.80790164e-02 2.16175709e-02
      1.91200618e-02 -3.03081702e-02 -3.27564478e-02 1.21068405e-02
      3.18997242e-02 2.36896309e-03 7.50788115e-03 1.40580134e-02
      1.85340606e-02 -8.25781003e-03 -5.43103218e-02 -6.39813300e-03
      5.92715992e-03 1.48562985e-02 1.92975067e-02 1.15331309e-02
      2.92704795e-02 -5.22804621e-04 1.56030906e-02 -4.57992740e-02
      -5.35952859e-03 -1.86299020e-03 6.44308887e-03 1.08152861e-02
      -2.92550214e-03 -7.91219715e-03 9.83000733e-03 1.73221286e-02
      3.91522422e-03 1.01674851e-02 1.22089777e-02 1.06613711e-02
      3.39011475e-02 -2.18706373e-02 -3.96127962e-02 -3.44435610e-02
      4.77641914e-03 7.80841941e-03 -2.47149896e-02 5.87230697e-02
      5.46388403e-02 3.91621254e-02 -2.90332753e-02 -5.18667251e-02
      2.38538161e-02 1.33231627e-02 -3.67234200e-02 -2.01085899e-02
      6.43860027e-02 5.67768514e-02 1.02013774e-01 1.20196037e-03
      -9.09345448e-02 -1.20759472e-01 -8.94065797e-02 -1.80121418e-02
      2.19249912e-02 4.50064465e-02 5.00599630e-02 7.17474818e-02
      -1.21599855e-02 1.70316193e-02 9.27424431e-03 6.06049150e-02
      -1.16724824e-03 -1.57831877e-03 3.25149521e-02 5.15534319e-02
      4.96558622e-02 -6.49200473e-03 -6.56294897e-02 -7.73298144e-02
      -5.78169264e-02 9.09404363e-03 3.00745387e-03 1.20328180e-02
      2.09358204e-02 2.01972853e-02 3.45881172e-02 3.31616178e-02
      -5.44215320e-03 1.87628940e-02 -2.27581803e-02 -5.30341733e-03
      4.18298319e-03 1.67313293e-02 2.72609610e-02 -2.10280307e-02
      -1.76887345e-02 -4.81829233e-02 -3.72776110e-03 -1.06246760e-02
      9.11344774e-03 2.24475209e-02 1.91971865e-02 3.81581895e-02
      4.18373244e-03 -1.92282423e-02 -2.99639627e-02 -7.26476451e-03
      9.04324092e-03 7.07942666e-03 -4.64861142e-03 1.42086914e-03
      1.46783842e-02 1.58538620e-04 -3.20505956e-03 -3.62609774e-02
      -1.39029277e-02 1.83733534e-02 3.08613107e-03 5.36228307e-02
      7.88300633e-02 1.02614783e-01 -6.91198604e-03 -5.93899228e-02
      -1.01633139e-01 -9.26383883e-02 3.91213708e-02 4.94644716e-02
      3.94021943e-02 9.40872952e-02 6.54477626e-02 2.03229245e-02
      -1.55585092e-02 -4.32136133e-02 -9.02989581e-02 7.08813891e-02
      8.44993256e-03 5.42720333e-02 6.02557212e-02 5.34497090e-02
      4.44203336e-03 -2.27281265e-02 -4.17235643e-02 -5.93811050e-02
      3.36608402e-02 3.20864841e-02 3.27205732e-02 1.10389143e-01
      7.15751648e-02 -1.27917696e-02 -7.39323944e-02 -7.66340867e-02
      -4.45752814e-02 4.02829014e-02 -9.77956597e-03 2.40716338e-03
      1.90955475e-02 4.18017283e-02 2.67262757e-02 -3.80362524e-03
      -5.26943877e-02 -1.09602083e-02 2.80602509e-03 8.22393037e-03
      1.38307996e-02 2.03341823e-02 3.90133150e-02 1.01233041e-02
      -6.22168882e-03 -1.11810289e-01 -2.34114472e-02 3.84400017e-03
      -1.38460472e-02 -2.47148294e-02 -5.72424708e-03 2.60170695e-04
      -3.41295153e-02 -3.54017131e-03 -1.78933442e-02 -8.27823952e-03
      -8.03347304e-03 -2.67759748e-02 -1.09536238e-02 5.13297785e-03
      6.28664810e-03 -5.01392744e-02 -6.99040666e-03 1.66093335e-02
      1.49348853e-02 2.57137371e-03 3.04214600e-02 -4.62019537e-03
      3.59581560e-02 -6.32321788e-03 -1.76697075e-02 3.74477077e-03
      -6.08248487e-02 -6.06060661e-02 3.24818045e-02 1.62272193e-02
      8.12020432e-03 2.86476146e-02 3.02993469e-02 -3.11526898e-02
      2.90622078e-02 7.90444911e-02 1.80902183e-02 2.30940972e-02
      3.24376412e-02 2.65283417e-03 3.72646227e-02 1.38377184e-02
      3.29403672e-03 -2.98538469e-02 -9.90938768e-02 -4.19388786e-02
      2.47443169e-02 5.51656559e-02 -4.06565107e-02 -5.03437482e-02
      -2.23520286e-02 -3.40448841e-02 4.33285087e-02 8.22597370e-03
      3.05096693e-02 1.94995068e-02 2.76895445e-02 2.45432276e-02
      4.65364102e-03 -2.36883620e-03 -3.17272246e-02 -1.83560420e-02
      -1.16324723e-01 -2.06408240e-02 1.76412407e-02 3.69620062e-02
      -1.57756973e-02 -5.13278283e-02 -3.89388800e-02 1.30703393e-02
      7.34157627e-03 3.52197210e-03 9.23832785e-03 3.55223939e-02
      -1.26732634e-02 6.24838658e-03 1.17835170e-02 1.73824951e-02
      -1.30051514e-02 -1.22250123e-02 1.04904855e-02 1.85097121e-02
      1.11388499e-02 6.47943350e-04 -9.90372500e-04 -1.05659654e-02
      1.69987567e-02 2.12187850e-04 1.05315363e-02 2.85667018e-03
      1.71539262e-02 1.48786081e-03 2.23174784e-02 4.00976883e-03
      9.02514346e-03 6.61163479e-02 -3.86826061e-02 -2.81519052e-02
      6.82955235e-02 2.99927359e-03 2.10037995e-02 5.98461702e-02
      4.96543497e-02 1.51876695e-02 -2.89909523e-02 -2.17587333e-02
      7.42253615e-03 6.10702075e-02 4.78777513e-02 7.67384991e-02
      5.27652763e-02 -2.73174159e-02 -7.89400414e-02 -5.63753769e-02
      -6.30607828e-02 -5.25057223e-03 -2.52662227e-03 1.85692292e-02
      3.04987896e-02 2.26628929e-02 -2.00682078e-02 -1.58525463e-02
      -5.40388562e-02 -4.69075143e-02 2.51711700e-02 3.33761498e-02
      6.57053888e-02 8.08812007e-02 3.05758547e-02 -3.21154892e-02
      -7.56923482e-02 -6.68382123e-02 2.21077409e-02 -8.37528054e-03
      1.59269944e-02 1.87254287e-02 4.33737077e-02 -2.99222209e-03
      -7.62580037e-02 -1.10011570e-01 -7.17050061e-02 6.12465106e-03
      1.09060332e-02 -7.62526318e-03 3.09728850e-02 2.29142271e-02
      5.25656901e-03 -9.13385302e-03 -1.02018975e-02 1.94584355e-02
      1.77997462e-02 1.35239391e-02 8.11890792e-03 1.04775261e-02
      6.58030203e-03 -5.70347402e-05 -3.30099690e-04 7.31100887e-03
      2.03161929e-02 -5.05743288e-02 1.16685349e-02 1.63419265e-02
      1.11570107e-02 1.25683087e-03 3.63822617e-02 1.05729438e-02
      2.27232128e-02 -2.91684107e-03 -3.82354520e-02 5.36718294e-02
      1.02717064e-01 6.22934066e-02 8.47484097e-02 4.02579457e-02
      9.11419396e-04 3.96667756e-02 3.33083309e-02 -8.91951844e-02
      5.17587997e-02 1.02472916e-01 9.43550840e-02 7.22197741e-02
      -5.52435918e-03 -4.97877002e-02 -1.70337446e-02 -3.91576365e-02
      -1.03573210e-03 9.15164128e-02 5.31779863e-02 4.14183699e-02
      7.45386556e-02 -2.53370255e-02 -3.62756625e-02 -1.34703203e-03
      -2.60102674e-02 -5.97355403e-02 -1.06111774e-03 5.89424819e-02
      3.37123536e-02 2.29027402e-02 -2.11525131e-02 -9.74205807e-02
      -1.00148469e-01 -3.32906693e-02 7.45877326e-02 2.89332699e-02
      -1.37384925e-02 2.05861833e-02 2.20868327e-02 -6.74691349e-02
      -7.47550204e-02 -1.65213253e-02 -8.58355965e-03 2.27696015e-04
      -3.44557269e-03 -4.30362970e-02 -4.91728745e-02 -2.90770177e-02
      6.13142410e-03 4.87957383e-03 9.31562670e-03 2.57915705e-02
      -1.90704092e-02 7.17293844e-03 9.72171966e-03 8.20953399e-03
      -2.28770939e-03 -1.90372597e-02 3.57618206e-03 8.80869199e-03
      2.47536823e-02 -5.37394844e-02 -1.82207171e-02 1.15408301e-02
      9.21231136e-03 -1.18114557e-02 6.12323061e-02 1.52192358e-02
      5.15788123e-02 9.10970941e-02 -8.23217109e-02 4.39215340e-02
      8.30935612e-02 6.67215809e-02 3.47938016e-02 4.98137362e-02
      3.13814282e-02 7.18226358e-02 1.06789201e-01 -3.66121642e-02
      -3.21221277e-02 5.35395928e-02 3.01705301e-02 3.55416238e-02
      3.28391939e-02 7.85742141e-03 5.50171770e-02 5.46751060e-02
      -6.75704032e-02 1.16097601e-02 2.85536014e-02 1.41429505e-03
      4.12874967e-02 7.13042021e-02 4.63675559e-02 5.07052913e-02
      6.36539161e-02 -1.22353077e-01 -5.27327396e-02 -1.58774499e-02
      -3.18004340e-02 2.94616818e-02 9.76369600e-04 -3.44268233e-03
      1.95992831e-02 3.04599083e-03 -2.24617124e-02 -9.35625378e-03
      -2.79703587e-02 -3.83934751e-02 -1.24475667e-02 2.70270556e-02
      1.48717798e-02 5.89647936e-03 1.62487489e-03 -1.80685520e-01
      -3.51475179e-02 -1.76055692e-02 -1.28150526e-02 1.92678813e-02
      -4.91843000e-03 1.07326228e-02 2.02269591e-02 7.03442609e-03
      3.40195186e-03 3.61805805e-03 1.36665450e-02 -1.61672849e-03
      -1.27176112e-02 -1.22449861e-03 7.97643326e-03 2.16655694e-02
      2.56395116e-02 8.63409135e-03 1.66785400e-02 1.09677259e-02
      8.41970928e-03 -1.26485657e-02 -3.95547971e-02 3.10677988e-03
      5.62859401e-02 3.24584432e-02 3.85692380e-02 4.40233946e-02
      3.87360901e-02 2.94624008e-02 -3.81072946e-02 -1.80514797e-03
      1.98231253e-04 -5.08681871e-03 -7.94259273e-03 7.89747387e-02
      1.92275383e-02 2.92397086e-02 3.73463444e-02 -8.56887549e-03
      3.20441537e-02 9.97123402e-03 -7.94764329e-03 -4.44750451e-02
      -2.31648497e-02 -6.32570300e-04 2.13968959e-02 4.29797322e-02
      -4.87296544e-02 4.22749319e-04 -5.10036200e-02 -9.44527611e-02
      -9.94057506e-02 -3.78772356e-02 1.14890477e-02 2.55289357e-02
      2.84217182e-03 -4.19278182e-02 -5.00629544e-02 -2.99101113e-03
      -2.23843497e-03 -4.93707061e-02 1.44007411e-02 1.38518233e-02
      2.11722087e-02 1.32663548e-02 -6.17324263e-02 -3.33627104e-03
      -1.53350923e-03 -5.25493361e-03 -4.50460613e-02 1.26813361e-02
      2.66021993e-02 1.98717900e-02 1.06953513e-02 -2.08205935e-02
      -7.70332105e-03 -2.99169892e-03 1.40190320e-02 1.81041341e-02
      9.00134537e-03 5.58057195e-03 4.08320315e-03 1.75391268e-02
      -9.17064585e-03 -6.70759706e-04 2.15259404e-03 7.96467997e-03
      -7.28966552e-04 -5.78399487e-02 -3.54007855e-02 -1.88532006e-02
      1.52679319e-02 1.31652039e-03 9.71648283e-03 1.87534168e-02
      -4.51307371e-03 -2.43107229e-02 -1.30884741e-02 4.00142260e-02
      1.57206263e-02 3.85158099e-02 -5.09514008e-03 -1.31836329e-02
      -2.52984073e-02 -2.92459447e-02 1.66931972e-02 1.75714996e-02
      -7.43919760e-02 -6.39902353e-02 -3.72019596e-02 -1.54977562e-02
      -6.58202544e-03 -3.42878886e-02 -6.29747361e-02 -8.63048360e-02
      -3.66094448e-02 3.38378735e-02 3.58293541e-02 4.31584707e-03
      -8.78685899e-03 1.94874518e-02 -1.70860626e-02 -3.28576304e-02
      -2.63404858e-04 2.19027903e-02 -6.65959204e-03 -1.02828946e-02
      -1.23994630e-02 2.60325130e-02 -5.62739465e-03 9.44781862e-03
      -3.55173368e-04 -1.39279542e-02 -4.54724208e-03 1.48212770e-02
      1.21591315e-02 1.11584533e-02 -7.59055780e-04 1.73362028e-02
      -7.53062777e-04 -1.77369267e-03 -5.12344157e-03 -5.48492409e-02
      -1.24645308e-02 1.21890465e-02 1.71864517e-02 2.91483402e-02
      -6.79131458e-03 4.11559455e-03 8.04928131e-03 1.11599592e-02
      -2.17676209e-03 -2.86671566e-03 -3.21110636e-02 -2.42089736e-03
      5.54492325e-03 7.69336289e-03 8.20612162e-03 1.38150193e-02
      2.51490958e-02 -2.28985380e-02 -1.38847288e-02 -7.03925118e-02
      -2.82900664e-03 8.53821915e-03 1.70635933e-03 -3.17255668e-02
      2.23299321e-02 8.10356215e-02 3.93294096e-02 -6.72220886e-02
      -1.47118956e-01 -7.02295303e-02 -9.98811424e-03 1.10384729e-02
      1.02954805e-02 4.93128970e-02 7.89837316e-02 1.43372193e-02
      -6.18336014e-02 -1.57282650e-01 -1.10344276e-01 -3.34619880e-02
      5.62235266e-02 2.28337161e-02 3.08893919e-02 3.68378572e-02
      2.39735637e-02 9.26278438e-03 1.38062872e-02 -1.00608822e-02
      5.17091565e-02 6.36377707e-02 4.10320535e-02 5.42417578e-02
      5.36094271e-02 -3.95472646e-02 -2.11404432e-02 -4.78605554e-02
      -2.12231763e-02 3.34984250e-02 1.44071495e-02 8.13353690e-04
      9.99307260e-03 1.59436110e-02 3.53936432e-03 1.40753547e-02
      2.04910897e-02 1.64868124e-02 2.04506665e-02 1.02272024e-02
      1.27354276e-03 -1.02854716e-02 1.73407830e-02 3.61082628e-02
      -1.87716670e-02 4.53868415e-03 1.44151589e-02 -4.85846912e-03
      1.86469145e-02 1.14523033e-02 3.43467249e-03 9.93824750e-03
      -2.28375383e-02 -6.60999212e-03 -5.97762540e-02 -8.42776499e-04
      1.69410184e-02 3.81200090e-02 -3.09981452e-03 -2.70225275e-02
      -1.01483325e-02 2.08913665e-02 1.61374453e-02 8.63251928e-03
      3.07804003e-04 2.59634070e-02 4.05685306e-02 3.08644157e-02
      3.02650556e-02 1.14534525e-02 3.27773392e-02 -7.35188201e-02
      -1.55605406e-01 -9.58690271e-02 -1.22222556e-02 5.47715910e-02
      1.69338044e-02 -3.24491337e-02 -2.03104820e-02 -3.02570611e-02
      -6.00073747e-02 -9.84734818e-02 -1.34251472e-02 4.10340615e-02
      8.34382996e-02 6.78326339e-02 8.25290456e-02 1.75546631e-02
      -2.92785577e-02 -7.34935850e-02 -7.48116449e-02 -3.07825152e-02
      5.39341234e-02 7.91908726e-02 5.23154289e-02 2.32524890e-02
      -1.27060488e-02 -5.15477061e-02 -8.50560591e-02 -1.44863024e-01
      1.40359160e-03 7.28657022e-02 1.10174511e-02 3.15548619e-03
      -6.93178596e-03 5.89607400e-04 1.21756422e-03 -1.87969729e-02
      -4.78321407e-03 1.53263286e-02 -7.20671564e-03 1.78018548e-02
      3.66699463e-03 -8.57139658e-03 -4.97644953e-03 2.91263666e-02
      -3.32237780e-02 6.16588304e-03 2.23215856e-02 1.45584997e-02
      3.29562798e-02 -7.83488248e-03 -2.61908025e-02 -1.12224892e-02
      4.32669334e-02 1.62876155e-02 1.52004464e-02 7.86743965e-03
      3.30998152e-02 2.57028602e-02 -2.02514697e-02 -3.64478081e-02
      -1.01128304e-02 2.25827359e-02 1.76758636e-02 2.31700810e-03
      2.51893960e-02 3.55924629e-02 3.06103081e-02 -2.81337253e-03
      -4.72181290e-02 -2.23305877e-02 -5.64511726e-03 -3.86431739e-02
      -4.57320362e-02 1.67663619e-02 6.83098733e-02 -2.98589803e-02
      -8.05509686e-02 -1.43549591e-01 -7.50945136e-02 4.17784937e-02
      5.58334915e-03 -5.98917976e-02 1.93371084e-02 3.65389436e-02
      3.12153865e-02 1.83294807e-02 -4.50733714e-02 -3.44690457e-02
      -1.40422946e-02 -4.22022417e-02 -9.71661210e-02 5.81042562e-03
      3.89961451e-02 -9.24493372e-02 -6.60453364e-02 -8.15346017e-02
      -3.01598776e-02 8.13608915e-02 -1.22820623e-02 -1.24517471e-01
      -6.49972036e-02 -5.67883700e-02 1.75523553e-02 2.66709510e-04
      -3.14086676e-02 -1.09593337e-02 5.56313917e-02 -3.22734155e-02
      1.73999667e-02 2.56308708e-02 8.89545586e-03 1.67332198e-02
      -1.51595538e-02 -3.65604274e-02 -1.81584023e-02 6.14961497e-02
      -1.27175171e-02 -1.83966067e-02 1.28661818e-03 1.30515145e-02
      1.33413598e-02 -2.71247346e-02 -2.12865286e-02 7.58470828e-03
      6.47508129e-02 3.60266082e-02 5.69184171e-03 2.02786755e-02
      2.80404761e-02 1.48127871e-02 -1.02793816e-02 1.83115639e-02
      8.49327259e-03 2.79075690e-02 2.36583911e-02 -5.74218156e-03
      -7.09125306e-03 1.01370048e-02 -4.31042723e-02 -1.16729073e-01
      -1.41100258e-01 -6.34099264e-03 1.40046462e-01 6.32157624e-02
      -4.18703109e-02 6.86976966e-03 2.71202121e-02 -1.06160410e-01
      -1.04327634e-01 -9.60765034e-02 4.04985510e-02 1.32819161e-01
      7.15793073e-02 -6.02127835e-02 -9.64108482e-02 -9.73630548e-02
      -1.00859687e-01 -9.19319913e-02 -8.17133784e-02 3.18976827e-02
      1.51914880e-01 4.24958467e-02 -1.15379393e-01 -8.03244486e-02
      -5.45531921e-02 -1.47637784e-01 -1.12987302e-01 -6.04203120e-02
      3.57845053e-02 1.13216013e-01 5.61340451e-02 -1.19052924e-01
      -1.68789521e-01 -1.42226040e-01 3.07399500e-02 6.26739871e-04
      -1.19951423e-02 1.63059998e-02 1.31440997e-01 2.35358030e-02
      -1.77429579e-02 -1.73968915e-02 8.51866230e-03 2.29287669e-02
      2.75845639e-03 1.09215372e-03 -1.21889431e-02 6.15435503e-02
      1.52776176e-02 7.92204868e-03 4.21735039e-03 7.92712905e-03
      1.79298408e-02 9.02456325e-03 2.65950654e-02 1.89083181e-02
      -4.96101100e-03 3.78555502e-03 -1.38062052e-02 -1.38253681e-02
      2.45267362e-03 2.89051309e-02 1.67231001e-02 1.35283582e-02
      1.77526716e-02 -7.68934935e-02 -1.02927284e-02 -1.36283003e-02
      -5.22456178e-03 1.27232252e-02 -9.48662311e-02 -7.06822425e-02
      -1.98470522e-02 3.45398076e-02 6.40636981e-02 7.80198947e-02
      -2.44718269e-02 -1.13998428e-01 -1.13532662e-01 7.07788952e-03
      -2.47148238e-02 3.98460813e-02 2.52874941e-02 -6.66596442e-02
      2.68450510e-02 9.55185574e-03 -4.13510390e-02 6.50721928e-03
      -1.04434066e-01 -1.04007095e-01 -4.31790985e-02 1.83975622e-02
      7.23927543e-02 9.34844092e-02 -4.26373258e-02 -1.06563359e-01
      -9.47651863e-02 4.10309844e-02 -5.43155447e-02 -3.02706622e-02
      2.96341721e-02 -7.58982897e-02 7.92251453e-02 4.49059978e-02
      1.68602765e-02 4.35607806e-02 2.03723311e-02 7.94696040e-04
      3.33193946e-03 -8.65046028e-03 2.28338060e-03 3.38965431e-02
      1.78886242e-02 3.73169146e-02 2.82071922e-02 4.53472063e-02
      1.39208958e-02 7.82672316e-03 4.95608151e-03 -7.19214901e-02
      2.75409240e-02 5.12453280e-02 5.17068692e-02 5.20530976e-02
      -2.48687491e-02 2.80787842e-03 8.42154142e-04 -2.52577905e-02
      2.46873172e-03 1.31774601e-03 1.01228384e-02 9.63670667e-03
      -3.14536653e-02 -1.91357285e-02 -9.13882721e-03 -1.84615050e-02
      -3.09257079e-02 1.09852757e-02 2.90544610e-02 1.88831259e-02
      -2.62342696e-03 -2.63858624e-02 -5.83023131e-02 1.08595770e-02
      8.81575886e-03 4.74050548e-03 6.56685084e-02 5.20785004e-02
      5.36899380e-02 3.54347453e-02 -8.31129029e-02 -6.41946048e-02
      -2.86968779e-02 -1.46330912e-02 9.06881643e-04 4.42887172e-02
      -1.93698835e-02 1.58356484e-02 2.42784508e-02 -8.68290961e-02
      1.17869768e-02 3.29091586e-02 5.61632998e-02 5.07835113e-02
      4.31705788e-02 -1.50893517e-02 1.68204624e-02 2.66403370e-02
      1.79035473e-03 -6.33151829e-02 -7.83963054e-02 -2.98630167e-02
      6.31855195e-03 5.87000372e-03 9.74285882e-03 2.63744663e-03
      3.35726552e-02 -4.58827093e-02 -2.10362319e-02 -3.22364783e-03
      5.13433665e-03 6.24312973e-03 2.67629717e-02 1.05766505e-02
      4.51152399e-03 2.67188111e-03 -2.77386699e-02 -1.50447832e-02
      1.38336525e-03 1.37206065e-02 -1.48519417e-02 1.99081078e-02
      2.88753072e-03 1.53315896e-02 1.71690807e-02 1.27408814e-04
      -8.59116483e-03 -9.64761828e-04 -5.76264877e-03 -1.77991372e-02
      1.45151326e-02 1.71404425e-02 8.60232674e-03 1.07048987e-03
      -1.57848336e-02 4.77290805e-03 -2.92603887e-04 -7.87085202e-03
      -5.33649791e-03 1.85840670e-03 2.10240460e-03 -5.35984000e-04
      1.03164529e-02 -5.12124854e-04 -2.91122366e-02 -1.22454539e-02
      1.43812003e-03 7.20081851e-03 -5.19326702e-02 -5.67714646e-02
      -7.18870293e-03 2.67996490e-02 -3.02465800e-02 -3.57252103e-03
      -1.48143778e-02 1.65722352e-02 -3.24808396e-02 -3.90285589e-02
      -7.98995197e-02 3.39441150e-02 1.91787686e-02 4.13665362e-02
      -2.92706415e-02 -7.28044808e-02 -1.39825167e-02 -3.69182676e-02
      -1.62989143e-02 -2.37979535e-02 2.62145307e-02 2.51368545e-02
      1.99128836e-02 -5.77366315e-02 -2.96325795e-02 2.01253705e-02
      -6.29291590e-03 -6.25322433e-03 -6.59616515e-02 -1.91665743e-03
      -1.27744209e-02 -3.66579182e-02 -3.13707888e-02 -5.14477072e-03
      6.40594447e-03 -1.67482570e-02 3.24217156e-02 2.39490643e-02
      1.32738994e-02 -3.70325358e-03 1.85980601e-03 -4.18900251e-02
      -4.55418415e-03 -4.32835368e-05 -1.05713925e-03 4.11592014e-02
      2.32064296e-02 4.76907799e-03 -3.14250477e-02 -1.88199393e-02
      1.31437732e-02 2.13658693e-03 -1.35892036e-03 7.47925043e-03
      2.92833475e-03 3.91582446e-03 1.75334257e-03 9.32728313e-03
      1.18735312e-02 2.14461200e-02 1.49293775e-02 5.25017735e-03
      1.33773666e-02 5.50941611e-03 -2.55992021e-02 -1.70205086e-02
      4.87253629e-03 1.75963081e-02 4.13245847e-03 1.04596680e-02
      2.74783280e-02 -1.06016658e-02 3.23123182e-03 -3.66926799e-03
      6.38135150e-02 2.83151735e-02 2.83640828e-02 6.38381625e-03
      -8.80672887e-04 -2.79454757e-02 -1.93370841e-02 -2.33385973e-02
      -1.09423278e-02 1.98317748e-02 -6.52119145e-03 -3.76115032e-02
      -4.76739109e-02 1.48557667e-02 3.70963737e-02 4.06688862e-02
      -1.04831727e-02 -7.78561532e-02 -1.55667607e-02 -1.54746007e-02
      -3.47816199e-02 -3.28191184e-02 4.88840975e-02 -1.54739544e-02
      -1.02231801e-02 -3.44633907e-02 -2.82379873e-02 -7.92698562e-03
      -1.11878570e-02 -1.79047771e-02 -1.00622047e-02 8.53325333e-03
      2.37383437e-03 -1.58050866e-03 3.02263778e-02 4.08077240e-03
      5.78632811e-03 -8.32450949e-03 2.19724933e-03 1.69236362e-02
      -1.03965460e-03 -2.52284501e-02 -3.93328480e-02 -6.35374039e-02
      -5.26547208e-02 1.90716907e-02 3.01802214e-02 2.35375706e-02
      2.45251320e-02 1.95769630e-02 1.77225042e-02 1.80567540e-02
      7.99424201e-03 -2.26943344e-02 -7.58690853e-03 8.22952297e-03
      1.72981862e-02 2.73962319e-02 8.10814649e-03 2.27036793e-03
      8.25735508e-04 4.19302694e-02 -2.10225340e-02 -5.27783856e-03
      1.62959639e-02 2.01429259e-02 -1.09763844e-02 -7.06428755e-03
      1.60801094e-02 1.41302431e-02 -5.29903919e-03 -2.14245915e-02
      -9.88686830e-03 2.19259076e-02 -3.83253396e-02 4.15723585e-02
      -1.40087558e-02 -2.75984989e-03 -1.56071549e-03 3.86296995e-02
      -1.05314115e-02 -2.65005734e-02 5.21554202e-02 3.54315229e-02
      -4.96389996e-03 9.35075991e-03 7.67892227e-03 -1.11715039e-02
      -3.10499314e-02 -1.52655803e-02 -1.26995994e-02 -2.61008702e-02
      -2.04120725e-02 -4.07690294e-02 -3.27202752e-02 9.62273218e-03
      2.26093102e-02 5.61676286e-02 3.22681293e-02 -1.24841593e-01
      -5.36369197e-02 -4.25922684e-02 1.18777752e-02 -2.92872917e-03
      -1.10974098e-02 -2.18831431e-02 -3.17499526e-02 -4.64215800e-02
      7.93006178e-03 2.09573712e-02 2.56652795e-02 4.88446234e-03
      -4.83791460e-04 1.87629927e-02 3.52770872e-02 8.93369615e-02
      4.09149714e-02 -6.80489931e-03 -2.68254001e-02 -2.79506436e-03
      1.87730491e-02 3.61983944e-03 -1.00483214e-02 -4.07264521e-03
      6.22733757e-02 -1.72685608e-02 -2.85169390e-05 6.86892821e-03
      8.40809476e-03 -7.38618488e-04 -1.47264944e-02 -2.09067818e-02
      4.25449776e-04 7.16243535e-02 -3.50736431e-03 -2.81132478e-02
      -2.34634262e-02 -5.94852772e-03 2.74763536e-02 -2.36570369e-02
      -3.68375592e-02 -1.28763029e-02 2.95574055e-03 -1.90725047e-02
      -2.57284977e-02 5.22108041e-02 1.73152816e-02 6.15618825e-02
      2.01293360e-02 -4.39293757e-02 -3.75154279e-02 3.55921239e-02
      2.88202446e-02 -5.40855713e-02 1.93441119e-02 4.41884343e-03
      -6.10707216e-02 -5.06913327e-02 -2.52219588e-02 -1.24997767e-02
      9.82015356e-02 6.58515766e-02 -1.07215293e-01 -4.06866185e-02
      -6.28431961e-02 -4.36566658e-02 -7.71081373e-02 -9.84241590e-02
      -4.39927839e-02 5.80610037e-02 -9.27779917e-03 -6.53767362e-02
      -4.70893458e-02 -3.88550051e-02 1.01630064e-02 6.41350285e-04
      1.34577164e-02 1.81218069e-02 8.02967325e-02 4.80119772e-02
      6.96645398e-03 -8.70727375e-03 4.90581663e-03 -3.49256536e-03
      -1.56744327e-02 6.24134205e-03 2.75200303e-03 2.62541100e-02
      -3.03184763e-02 -7.15808431e-03 7.19690754e-04 1.98291335e-02
      -1.36280637e-02 -2.30087973e-02 -2.03856789e-02 7.68232066e-03
      6.66867495e-02 -1.07303122e-02 -4.92038094e-02 -4.22706902e-02
      -2.51760427e-02 -2.64654346e-02 -2.37959120e-02 -8.31374526e-03
      -2.22681686e-02 1.17029082e-02 -1.31816156e-02 -2.92087961e-02
      -2.74347458e-02 -3.45272534e-02 6.47660792e-02 2.44188886e-02
      -1.18148727e-02 -7.14890137e-02 5.33124506e-02 2.71627493e-02
      -3.65359597e-02 4.64526517e-03 1.14357090e-02 3.06048989e-02
      9.62631218e-03 -5.71313640e-03 -3.10026165e-02 2.19380762e-02
      6.08398803e-02 1.16259716e-02 9.00784601e-03 7.59887742e-03
      -1.79964900e-02 -8.84941220e-02 -8.99779946e-02 -8.59086961e-02
      3.07938587e-02 -7.51603022e-02 -7.29346424e-02 -4.44596149e-02
      -7.45757716e-03 1.34585053e-03 -6.14376403e-02 -9.45253968e-02
      -7.21263587e-02 -1.05267689e-02 1.87955480e-02 2.44451966e-02
      5.43480963e-02 7.81539753e-02 -2.47781407e-02 -2.62168050e-02
      -5.29196905e-03 3.82018858e-03 2.75215600e-03 -5.00377901e-02
      -2.61514671e-02 -9.55877267e-03 -5.48198726e-03 -6.42597862e-03
      -3.18035483e-02 -1.30809117e-02 1.29994452e-02 1.53149606e-03
      -2.26563960e-02 4.62192390e-03 3.35310884e-02 5.67864720e-03
      -1.65010020e-02 -2.45827194e-02 -9.06717032e-03 -2.92107929e-02
      -5.03989607e-02 -3.50905489e-03 -7.02475943e-03 7.29439640e-03
      -3.67457722e-03 1.92316005e-03 -1.53675862e-02 -6.85807457e-03
      -2.85100304e-02 -9.24336985e-02 2.49270699e-03 2.03804113e-02
      2.18552593e-02 7.76514504e-03 4.04745191e-02 6.87950198e-03
      -1.22080101e-02 -3.65221798e-02 -4.25096564e-02 5.42143509e-02
      4.42602560e-02 4.05082852e-02 3.93148921e-02 6.63903505e-02
      5.52599952e-02 3.50742713e-02 1.60940159e-02 -1.11344151e-01
      4.25795726e-02 7.38165081e-02 9.86128226e-02 1.14656173e-01
      2.02769358e-02 -2.31289212e-03 -5.52891940e-02 -8.55548158e-02
      -5.26470058e-02 -2.58609112e-02 3.96416336e-02 5.00031523e-02
      7.43526816e-02 5.10024466e-02 6.35134354e-02 4.34200503e-02
      -3.69600952e-02 -1.10264711e-01 -3.94488638e-03 2.56684534e-02
      8.03620294e-02 8.53563920e-02 6.20598765e-03 -1.07655618e-02
      -6.11854810e-03 4.48343158e-03 3.35826795e-03 -2.37944480e-02
      1.41673721e-02 3.87164168e-02 2.28478108e-02 2.49897372e-02
      1.87384188e-02 1.77035183e-02 -7.51618575e-03 2.66099442e-02
      -1.13832271e-02 2.19235197e-02 3.79535109e-02 3.51367109e-02</_></support_vectors>
  <decision_functions>
    <_>
      <sv_count>1</sv_count>
      <rho>-1.8197499415775074e+00</rho>
      <alpha>
        1.</alpha>
      <index>
        0</index></_></decision_functions></my_svm>
</opencv_storage>
